encog,BasicNetwork,java,3.3.0,1,1538757987039
[BASIC]
[BASIC:PARAMS]
[BASIC:NETWORK]
beginTraining=0
connectionLimit=0
contextTargetOffset=0,0,0
contextTargetSize=0,0,0
endTraining=2
hasContext=f
inputCount=9
layerCounts=1,7,10
layerFeedCounts=1,6,9
layerContextCount=0,0,0
layerIndex=0,1,8
output=0,0,0,0,0,0,0,1,0,0,0,0,0,0,0,0,0,1
outputCount=1
weightIndex=0,7,67
weights=-0.0278576285,-5.7646130261,0.8986378343,0.6393033606,-0.0688623795,0.3524208711,-0.3540083786,-2.3895516487,-12.6259760774,0.0843220715,0.0768834856,0.7593528918,-557.9030517979,0.3262542197,-0.0442788346,0.0577735613,-0.4000425389,-4.9123079007,0.1768479213,-0.0917879359,-0.1259143373,0.0440640778,0.0882130017,-0.1737373622,-0.3186255681,-0.1004734898,1.114545314,5.7073224309,0.7030270803,-0.511350621,0.1522118633,-0.5436826707,-3.3213733519,-0.2570939522,0.2109727521,-0.2485819465,-0.181428917,3.7818210364,0.7322343127,-0.2095848443,-0.9285742263,-1.001737829,5.5144257135,-0.9123142602,-0.7718581944,-0.4704901529,-1.7031539121,-1.5486697937,0.4793924751,0.1914504947,0.4267696161,-0.5050555193,-2960.2503528506,-0.1981124376,0.862524313,-0.7835342853,-0.0953820502,40.7729727015,2.0412522584,-0.2373982239,0.7999313021,-0.1834614279,4894.8933228737,-1.9109949313,0.4993427415,3.204077621,-0.5150000483
biasActivation=0,1,1
[BASIC:ACTIVATION]
"org.encog.engine.network.activation.ActivationSigmoid"
"org.encog.engine.network.activation.ActivationSigmoid"
"org.encog.engine.network.activation.ActivationLinear"
