encog,BasicNetwork,java,3.3.0,1,1538754786787
[BASIC]
[BASIC:PARAMS]
[BASIC:NETWORK]
beginTraining=0
connectionLimit=0
contextTargetOffset=0,0,0
contextTargetSize=0,0,0
endTraining=2
hasContext=f
inputCount=9
layerCounts=1,8,10
layerFeedCounts=1,7,9
layerContextCount=0,0,0
layerIndex=0,1,9
output=0,0,0,0,0,0,0,0,1,0,0,0,0,0,0,0,0,0,1
outputCount=1
weightIndex=0,8,78
weights=-0.1494355335,-0.4839695202,-0.8090660793,1.0251000998,-2.9686328049,1.5876401764,-0.0402391545,0.4376676491,-0.1731642996,-0.7993201532,-0.2070881775,-0.6654549075,0.5825493582,-0.946888777,0.1815437198,0.4663829401,0.4772217452,0.3133462536,-0.9513605153,0.1130810952,0.5418154179,-0.5358180423,-0.423436565,0.1412528304,-0.8695605731,-0.0859593872,0.0400629556,-0.3464087065,-1.0009311122,-0.7033970034,-0.458464501,-0.2488152942,0.6575186485,0.4744549707,0.1235394481,-0.8429209132,-0.0707199097,0.5592009868,1.3466821417,-0.3751770662,-0.831823044,0.0818246858,0.4391146609,-0.5133819424,0.665394964,0.738569448,0.0099574652,-0.9872959392,-3.2936897437,0.2379259915,-0.3269836087,-0.2230497098,0.5527271067,-0.2733178027,0.3818594566,0.3677702692,-0.0571771312,1.2500913108,1.8289648853,0.4003580333,-0.4523348599,-0.9352842171,0.4687989617,0.7691294103,0.2605800693,0.5343647914,-0.336806808,-0.3670287967,0.0123043291,-0.6018018464,-0.1268849526,-0.7292325412,0.165609217,0.443302605,-0.2296594751,-0.3786854886,-0.4463353839,-0.4532270324
biasActivation=0,1,1
[BASIC:ACTIVATION]
"org.encog.engine.network.activation.ActivationSigmoid"
"org.encog.engine.network.activation.ActivationSigmoid"
"org.encog.engine.network.activation.ActivationLinear"
