encog,BasicNetwork,java,3.3.0,1,1538755845320
[BASIC]
[BASIC:PARAMS]
[BASIC:NETWORK]
beginTraining=0
connectionLimit=0
contextTargetOffset=0,0,0
contextTargetSize=0,0,0
endTraining=2
hasContext=f
inputCount=9
layerCounts=1,6,10
layerFeedCounts=1,5,9
layerContextCount=0,0,0
layerIndex=0,1,7
output=0,0,0,0,0,0,1,0,0,0,0,0,0,0,0,0,1
outputCount=1
weightIndex=0,6,56
weights=-1.8704899883,1.9338718291,-0.3483817147,1.9771404743,0.8822928788,-1.2941901487,-1.6307491658,-0.4306588001,0.3454626069,-0.5155062619,0.3232585566,-0.3503585357,0.3528417456,-0.4529830973,0.2984204207,1.0079388285,2.5816988139,-0.2049025763,-0.0466170222,0.2559609968,0.4566963872,-0.2005752325,-0.4055891258,-0.6042077153,-0.0074818693,-1.1830434871,0.3545381766,-0.5413321385,0.4495057315,0.3780477561,0.27226799,0.4304221331,1.0939193663,-0.8481528309,0.7752654536,-0.3520856315,2.366071726,-0.4904799635,0.1638693492,-0.3174978414,0.4834168149,0.0872741711,0.5288656406,-0.2730928083,0.4590821278,-1.358970224,1.8641322951,0.6209487819,0.5212954855,-0.8783762292,-0.0429403276,0.977629654,0.7058554598,-0.7172608919,-0.5947363064,-0.1326224851
biasActivation=0,1,1
[BASIC:ACTIVATION]
"org.encog.engine.network.activation.ActivationSigmoid"
"org.encog.engine.network.activation.ActivationSigmoid"
"org.encog.engine.network.activation.ActivationLinear"
