encog,BasicNetwork,java,3.3.0,1,1538754924620
[BASIC]
[BASIC:PARAMS]
[BASIC:NETWORK]
beginTraining=0
connectionLimit=0
contextTargetOffset=0,0,0
contextTargetSize=0,0,0
endTraining=2
hasContext=f
inputCount=9
layerCounts=1,9,10
layerFeedCounts=1,8,9
layerContextCount=0,0,0
layerIndex=0,1,10
output=0,0,0,0,0,0,0,0,0,1,0,0,0,0,0,0,0,0,0,1
outputCount=1
weightIndex=0,9,89
weights=-2.5218455695,-0.9070882899,1.5846026834,-1.5555278596,-0.0205838032,0.3249270866,0.5293705052,0.4024682209,0.8849530867,-3.1051116408,0.1080019198,-0.4855508453,0.3623768006,0.2095039057,-0.8186079506,0.3223151261,0.4002272489,-0.0247229001,1.0493632927,-1.0731046004,0.3547777621,0.4045950286,-0.8261152077,-0.0779448888,-0.3497904521,0.538986858,0.1188623289,0.2904720231,0.8005558523,1.4283856826,0.6689094699,0.7634282083,0.1697508514,0.2827784277,-0.6184501956,0.5296004024,-0.5151482065,0.4536581801,-0.8921173,-2.0798687516,0.15398414,0.9709166788,0.4957113449,-0.6034308539,0.2207945732,-0.1359599886,-0.3902594635,0.458916634,0.7437080908,-0.2966360478,0.3967063696,-0.9244369161,-0.872356999,-0.5659920689,-0.1934817318,0.2885306447,-0.686737974,-0.4988901122,-0.3902422073,-0.4895807878,0.2408005632,0.7032182457,0.8230326821,0.427462666,0.1980484556,0.447952378,0.591869071,0.9178833851,0.4895565372,0.70092284,0.0860336603,-0.6846077531,0.7483327152,0.8493975462,0.3373035748,0.2914937881,-0.6551629344,-0.1860482482,-0.9377366773,0.0005999636,-0.9465179865,-0.7988932908,0.6992386997,-0.0334616192,-0.5478679383,-0.4511836894,0.3871382339,-0.3289287848,-0.7029143093
biasActivation=0,1,1
[BASIC:ACTIVATION]
"org.encog.engine.network.activation.ActivationSigmoid"
"org.encog.engine.network.activation.ActivationSigmoid"
"org.encog.engine.network.activation.ActivationLinear"
