encog,BasicNetwork,java,3.3.0,1,1538754486595
[BASIC]
[BASIC:PARAMS]
[BASIC:NETWORK]
beginTraining=0
connectionLimit=0
contextTargetOffset=0,0,0
contextTargetSize=0,0,0
endTraining=2
hasContext=f
inputCount=9
layerCounts=1,7,10
layerFeedCounts=1,6,9
layerContextCount=0,0,0
layerIndex=0,1,8
output=0,0,0,0,0,0,0,1,0,0,0,0,0,0,0,0,0,1
outputCount=1
weightIndex=0,7,67
weights=-0.2500529799,0.3993631051,-0.277260095,2.4161330446,0.3521024753,-2.547521563,0.012408733,-0.510476919,-0.4056098906,-0.8391715983,-0.50624677,0.3021827718,-0.3724375144,0.8740012373,0.6537567838,-0.1303493655,0.0220351361,0.7801528636,0.4895120333,-0.5988873567,-0.4413278878,-0.1243073319,0.7829883912,0.4567926375,0.611534915,0.2826497159,0.226429112,0.1348007928,-0.3659467606,0.7882691205,-0.2332121341,0.6481443838,0.1214274401,-0.1091187725,0.0174441562,0.2537925188,1.0741826694,2.9411905288,0.0322816406,-0.3307907828,0.0370220494,-0.3108416269,0.685303768,0.3519553478,-0.2394128908,-0.3854384385,-1.4359574879,0.432887662,-0.3039781504,0.4974293614,-0.3999213336,-0.7377233839,-0.3045712252,-0.4371301189,-0.3251055348,0.3070064119,-0.1079397789,-2.6315276799,0.0951757732,-0.1955003976,-0.0354257535,-0.3349856352,0.296347218,0.2699371568,-0.3340122285,-0.1771555239,1.4318278104
biasActivation=0,1,1
[BASIC:ACTIVATION]
"org.encog.engine.network.activation.ActivationSigmoid"
"org.encog.engine.network.activation.ActivationSigmoid"
"org.encog.engine.network.activation.ActivationLinear"
