encog,BasicNetwork,java,3.3.0,1,1538988177676
[BASIC]
[BASIC:PARAMS]
[BASIC:NETWORK]
beginTraining=0
connectionLimit=0
contextTargetOffset=0,0,0
contextTargetSize=0,0,0
endTraining=2
hasContext=f
inputCount=9
layerCounts=1,7,10
layerFeedCounts=1,6,9
layerContextCount=0,0,0
layerIndex=0,1,8
output=0,0,0,0,0,0,0,1,0,0,0,0,0,0,0,0,0,1
outputCount=1
weightIndex=0,7,67
weights=-0.8438103441,-2.1709374416,-0.1956507643,0.3682333306,1.8583124248,1.8350298379,-0.5217920856,-1.4350766339,0.5292105384,-0.4024404393,-0.8180263331,0.2474429941,0.4552095894,-0.6273929642,0.8522229999,0.439654334,0.4299420728,-2.426635138,0.0048425953,0.3503332169,0.7301025205,-0.3676645391,-0.3120261711,0.4668098474,0.2735915765,-0.201668677,0.7092215075,-0.5633039684,0.5554162838,0.208270826,-0.5700972228,0.5594657932,0.5569009367,0.3256559702,-0.3637159972,0.3991827376,-0.5199734526,0.7898796632,-0.309036695,-0.0290247942,0.4497398151,0.4108358338,-0.5978162506,0.7900436563,-0.4207239645,-0.902081514,-0.8376815243,2.0058588709,0.6924819592,-0.3491219719,-0.2735649808,0.1772301341,1.3801064903,-0.3805339101,-0.0265868704,-0.0531311311,-1.1514017393,2.1037378167,-0.2335862228,0.5511188157,0.613946058,0.2841180963,-0.6661898718,0.3842789734,-0.0185940911,0.040117021,-1.3666965495
biasActivation=0,1,1
[BASIC:ACTIVATION]
"org.encog.engine.network.activation.ActivationSigmoid"
"org.encog.engine.network.activation.ActivationSigmoid"
"org.encog.engine.network.activation.ActivationLinear"
