encog,BasicNetwork,java,3.3.0,1,1538759821780
[BASIC]
[BASIC:PARAMS]
[BASIC:NETWORK]
beginTraining=0
connectionLimit=0
contextTargetOffset=0,0,0
contextTargetSize=0,0,0
endTraining=2
hasContext=f
inputCount=9
layerCounts=1,6,10
layerFeedCounts=1,5,9
layerContextCount=0,0,0
layerIndex=0,1,7
output=0,0,0,0,0,0,1,0,0,0,0,0,0,0,0,0,1
outputCount=1
weightIndex=0,6,56
weights=0.4207806629,-2.4228674748,-1.8951056215,1.4650385525,1.2850042929,-0.0475175629,1.1592904176,0.0915214922,-0.1602408912,0.1377961073,0.4437406709,0.5137372282,-0.8480988137,-0.508925573,-0.3359165037,0.905206387,-2.4041018141,-0.0860059374,-0.5915607427,-0.4030621836,-0.7301848348,0.6900261623,0.8353704769,-0.3012338286,0.0369402646,1.3137310849,-1.9915612335,-0.2820009225,1.0814860119,-0.1307322184,0.5939406374,-0.6638883189,-0.5553968831,0.3524541663,0.6893632435,0.2294749913,1.9213230961,0.1702425233,0.6226865045,-0.1310458637,-0.1623691832,0.7412991982,0.1171062558,-0.0220416232,0.5192349161,-1.0382550875,2.0349901087,-0.8267874204,-0.2215863002,-0.8537797798,-0.1679445983,0.4126651915,0.9205974081,-0.4884802181,0.248055242,-0.0296929173
biasActivation=0,1,1
[BASIC:ACTIVATION]
"org.encog.engine.network.activation.ActivationSigmoid"
"org.encog.engine.network.activation.ActivationSigmoid"
"org.encog.engine.network.activation.ActivationLinear"
