encog,BasicNetwork,java,3.3.0,1,1538761951841
[BASIC]
[BASIC:PARAMS]
[BASIC:NETWORK]
beginTraining=0
connectionLimit=0
contextTargetOffset=0,0,0
contextTargetSize=0,0,0
endTraining=2
hasContext=f
inputCount=9
layerCounts=1,9,10
layerFeedCounts=1,8,9
layerContextCount=0,0,0
layerIndex=0,1,10
output=0,0,0,0,0,0,0,0,0,1,0,0,0,0,0,0,0,0,0,1
outputCount=1
weightIndex=0,9,89
weights=0.4923389394,-0.8316531938,2.5022716159,-2.2629004111,-0.5499996314,0.0505536352,0.0930661811,1.0117795001,-0.5262610295,1.2264270532,0.3076564621,-0.7183513903,-0.3429882517,-0.3846550281,-0.5955112411,0.160738297,0.9668971289,-0.5943882334,0.3092345918,-1.1239795795,0.311139466,-0.9119967445,-0.1330054868,0.8565038737,-0.280847079,-0.8858992842,-0.3227495572,0.2673991264,-0.1878798007,2.5751930387,-0.4615957759,0.0812018584,0.463792016,-0.8581422668,0.8619157584,-0.2453540537,-0.1354872409,0.4571782045,-1.2714938291,-2.5593551611,-0.5183250511,-0.0600869899,0.3977288111,-0.3774711111,0.622588133,-0.2597801469,-0.2547611055,0.4273648093,1.1340281228,0.3232478261,-0.4989644074,-0.3834786175,0.5890264685,0.6901639773,0.5118759044,0.3437453097,-0.4979484254,0.5491464441,0.7042556005,0.6265456352,-0.6431021504,-0.6420895029,0.7099203498,-0.5739982961,-0.0072262723,0.9494887709,0.6419121147,0.2109306073,0.1998296356,0.0408591508,0.2004178718,-0.4856063469,0.8191845646,-0.4866683316,0.1875018618,-0.8927791237,0.1532124667,-0.4746051281,0.2142538097,1.3580803621,-0.1407115332,-0.8784103393,0.0263328635,0.759375651,0.6571995802,-0.624870951,0.3577631088,0.2868265194,-0.4195323714
biasActivation=0,1,1
[BASIC:ACTIVATION]
"org.encog.engine.network.activation.ActivationSigmoid"
"org.encog.engine.network.activation.ActivationSigmoid"
"org.encog.engine.network.activation.ActivationLinear"
