encog,BasicNetwork,java,3.3.0,1,1538761384529
[BASIC]
[BASIC:PARAMS]
[BASIC:NETWORK]
beginTraining=0
connectionLimit=0
contextTargetOffset=0,0,0
contextTargetSize=0,0,0
endTraining=2
hasContext=f
inputCount=9
layerCounts=1,8,10
layerFeedCounts=1,7,9
layerContextCount=0,0,0
layerIndex=0,1,9
output=0,0,0,0,0,0,0,0,1,0,0,0,0,0,0,0,0,0,1
outputCount=1
weightIndex=0,8,78
weights=-0.8775542989,-0.324193707,-2.400220435,2.0194672411,-0.6516082009,1.3334565785,0.9246498368,-0.5458339217,-0.6265929814,0.3198491007,0.8445167074,-0.994415685,-0.3304889663,-0.3662288266,-0.9356684425,0.4832687971,-0.6073370409,1.0269364998,-0.6355138888,0.9317693629,-0.690586621,0.5402349071,-0.8426774592,0.815700069,0.5626909266,-0.5178924202,0.8822458994,0.1014042615,-2.5679399922,0.0349454797,0.2923526726,0.1479685171,0.5870793479,-0.1435940218,0.1630687095,-0.7418713249,-0.0154369571,1.1112268336,2.1504172771,0.5364599292,0.2158889437,-0.7663632823,0.4242456504,0.5874851039,0.5277480178,-1.0801559368,0.4865614957,-0.7553121642,-0.8392436521,0.6389142703,0.3344644451,-0.8588048769,0.1744287539,0.3406459264,0.4410762353,0.5855529536,0.3783054398,-0.4295050947,1.7764759145,-0.2678021838,1.0627950593,0.0265488273,-0.4716957228,-0.6354391759,-0.5072019025,1.0369238316,-0.7432139131,-0.2258803443,1.0849235329,0.7335103192,-0.7350174148,0.7621337028,-0.3068305088,1.0071675672,-0.33883448,0.5884568908,-0.3136185663,-0.3147103985
biasActivation=0,1,1
[BASIC:ACTIVATION]
"org.encog.engine.network.activation.ActivationSigmoid"
"org.encog.engine.network.activation.ActivationSigmoid"
"org.encog.engine.network.activation.ActivationLinear"
