encog,BasicNetwork,java,3.3.0,1,1538758040998
[BASIC]
[BASIC:PARAMS]
[BASIC:NETWORK]
beginTraining=0
connectionLimit=0
contextTargetOffset=0,0,0
contextTargetSize=0,0,0
endTraining=2
hasContext=f
inputCount=9
layerCounts=1,9,10
layerFeedCounts=1,8,9
layerContextCount=0,0,0
layerIndex=0,1,10
output=0,0,0,0,0,0,0,0,0,1,0,0,0,0,0,0,0,0,0,1
outputCount=1
weightIndex=0,9,89
weights=-2.1195163185,0.0403824489,0.6297747522,0.4682302056,0.2259850439,0.5293201517,0.6163830195,-2.0339465987,-0.6379553658,-4.6041078751,0.3021020895,-0.1846294585,0.9820804716,-0.2305838027,-0.1069745925,0.445433989,-0.3509247831,-0.0129274953,0.5593284534,3.969335647,-0.0984475565,-6.2467488489,-0.4170281358,0.5688113603,0.2861983208,-1.0604307307,0.3703484834,-0.4615681824,-0.2685848305,3.2814746057,-0.5512164819,0.164413005,0.4931674451,0.3922174564,0.5727875984,-0.3584761061,0.8410162824,-1.0370114909,-0.6196524002,0.532835062,0.8131479963,-1.0008323691,1.0782729376,0.775877112,0.7566138392,0.4413228578,0.522024724,-1.0363630761,-0.9469964278,3.0570837526,-0.7852633486,-0.3642026378,4.6460381763,0.8348020592,0.9212121828,-1.0238272119,0.3675654483,-0.3825102194,-0.6475525043,4.5837140562,-0.1920699474,0.0243941845,-0.2321568801,-0.5874804048,-0.070369981,-0.9801476312,0.567059898,0.6191493402,-1.198847199,2.2211142451,0.181422031,0.2238358927,1.0132378016,0.4932806113,0.0377392288,0.1403877008,0.1432597807,-0.1960261078,-0.9274030403,-4.6518880649,-0.0337050208,-0.0441175994,-0.0434375282,1.0084662247,0.5238657969,-0.73572042,0.5125847705,-0.3179839678,1.0171235443
biasActivation=0,1,1
[BASIC:ACTIVATION]
"org.encog.engine.network.activation.ActivationSigmoid"
"org.encog.engine.network.activation.ActivationSigmoid"
"org.encog.engine.network.activation.ActivationLinear"
