encog,BasicNetwork,java,3.3.0,1,1538758021236
[BASIC]
[BASIC:PARAMS]
[BASIC:NETWORK]
beginTraining=0
connectionLimit=0
contextTargetOffset=0,0,0
contextTargetSize=0,0,0
endTraining=2
hasContext=f
inputCount=9
layerCounts=1,8,10
layerFeedCounts=1,7,9
layerContextCount=0,0,0
layerIndex=0,1,9
output=0,0,0,0,0,0,0,0,1,0,0,0,0,0,0,0,0,0,1
outputCount=1
weightIndex=0,8,78
weights=0.3955347332,-0.8084616533,0.4633407006,0.3346933472,-4.7854018717,0.5392962143,0.3162183204,-0.2420957252,-1.9678189332,0.3909929125,-0.202773271,2218.3756475598,0.0214299412,-0.7043860542,0.9858164156,-0.2326199344,-1.4182789362,-1.4061381733,-5.5437694152,-0.113238224,-0.245908762,-0.6405242425,-0.519269034,-331.1246728971,0.4895829958,0.208210742,-0.2652207793,0.5065218874,4210.1572871392,-0.126611515,4.9358577564,3125.8391465113,1.1897378788,2253.8680659122,0.635535505,-0.0103006144,-0.2620577362,0.5710346818,3.6157147229,0.2672950582,-1.102287617,-0.5604910156,-0.5102374914,3.1247763158,0.3170879031,-0.6562583904,0.4379739122,-3.0930211147,-5.5056167941,-0.2321366273,-0.1394665469,0.73637887,0.8220003775,1.0484206228,-0.3614264015,-0.8939293238,-0.0600317015,0.9071065491,3.7006308166,-1.1095029336,0.0766871141,0.8911993487,-1.1676794734,5.9435881733,-0.6483774249,-0.3775727699,-1.0023924816,-2.0531193458,2.5998051523,-1.0237437446,-0.8573431518,0.8750827936,0.6663210169,0.5085849517,-2.8648592262,0.7313434229,-0.1822417646,-0.6954831491
biasActivation=0,1,1
[BASIC:ACTIVATION]
"org.encog.engine.network.activation.ActivationSigmoid"
"org.encog.engine.network.activation.ActivationSigmoid"
"org.encog.engine.network.activation.ActivationLinear"
