encog,BasicNetwork,java,3.3.0,1,1538757930821
[BASIC]
[BASIC:PARAMS]
[BASIC:NETWORK]
beginTraining=0
connectionLimit=0
contextTargetOffset=0,0,0
contextTargetSize=0,0,0
endTraining=2
hasContext=f
inputCount=9
layerCounts=1,6,10
layerFeedCounts=1,5,9
layerContextCount=0,0,0
layerIndex=0,1,7
output=0,0,0,0,0,0,1,0,0,0,0,0,0,0,0,0,1
outputCount=1
weightIndex=0,6,56
weights=1.7700865514,0.8473223403,1.1504021095,-2.2150138031,1.4746265185,-0.6483444029,-15.2606934626,-0.2985466187,-0.5139911837,-1.1725832879,-0.6220165598,-1.583088641,-0.6816455344,0.0206398197,-0.4595701786,-0.3044132539,3072.8055780941,295.2188407175,0.2254294305,43.2938943825,202.1189545873,3.8474240796,-0.1752081664,518.1812735629,11.8399532767,1.0466098186,-3.7503402044,0.7597978605,0.0827669142,0.4404868464,1.3578093154,-2.2442325133,0.5011284036,0.0687693511,0.7307772839,-0.8740306572,-5.376376097,0.938621261,-0.1882033737,0.3515433732,0.4018822431,-2.4824136387,0.48987986,-0.0716627998,0.0823204564,2.6403774387,6.0375233647,0.7580433351,-0.3549989795,0.3681538216,-0.0928059698,-2.2640986941,0.1559267372,-0.5432422646,-0.6088756178,-2.0369554485
biasActivation=0,1,1
[BASIC:ACTIVATION]
"org.encog.engine.network.activation.ActivationSigmoid"
"org.encog.engine.network.activation.ActivationSigmoid"
"org.encog.engine.network.activation.ActivationLinear"
